{"input_nodes": 1, "hidden_nodes": 10, "output_nodes": 13, "learning_rate": 0.1, "weights_input_to_hidden": [[0.8227733845748952], [0.7228351137569966], [-0.14413858236228982], [-0.629416330309476], [0.9151825003554968], [0.8855873520357791], [0.8555718162228034], [0.62792668644573], [-0.7861904610759978], [-0.9236198376857481]], "weights_hidden_to_output": [[0.6693569618008466, -0.26903703628577297, 0.7821714982317225, -0.9499501090086876, 0.41830323755330984, -0.5819277003393389, 0.38704545506117305, 0.9368698996568291, 0.5516402194712772, 0.10454887058862809], [-0.06558623653110593, 0.9899568980779441, 0.3271053547449606, 0.5916365785933015, -0.4952150712576461, -0.9405519756441113, -0.6631714728632904, -0.015999747012614723, -0.8123369610025875, -0.18181077767741977], [-0.32597869195224083, -0.7798445829398668, 0.11381206131350731, 0.42562860969716704, 0.45153474842262836, -0.2250200891220386, -0.008045690564726059, 0.5028280825886069, 0.6611999978755366, -0.7239563839534475], [0.06971798608166307, -0.41685456958329375, 0.43713822856306095, 0.5174915913191991, 0.8393162617920672, 0.2016736001793941, -0.3451986335434712, 0.5706243382502902, -0.6735558245226106, -0.13957363631295377], [0.6330238701695292, -0.5371575189285843, -0.9939844308966036, -0.42482046620834896, -0.7837912626203448, -0.2519126161665437, 0.8088012926863815, -0.6805479637990208, -0.5738580407036813, 0.6960671947281992], [0.8734685907512244, -0.9304998413883171, 0.8691296978882467, 0.692241322674411, 0.146789896092969, 0.39888594607391437, -0.9543034952136783, -0.5450540387815154, 0.20816577034392808, 0.5501914454483169], [0.6511033440445484, -0.28443846085903207, 0.7788704559427506, -0.7670717729483554, -0.9329141048066147, 0.9184143990002662, 0.7352890080633108, 0.17895641529119447, -0.7453074908963336, 0.9819448254790097], [-0.5174445890998018, 0.0732458339765481, -0.30616620668972144, -0.8423256436575858, 0.3453085671552907, 0.44164109527164686, 0.1957254734862924, 0.14656236246590992, 0.2635425677933442, -0.7748128734752766], [-0.786357589381237, -0.9181122247193326, 0.5205348042131537, -0.7818046387125487, 0.28609652099655714, 0.2447654226886864, 0.4776476329383432, 0.17131800454654816, -0.5271265523500243, 0.4482135783295738], [-0.6068557306352194, -0.6801001846467791, -0.005940375810429069, -0.9097068749035133, 0.49964485823503957, -0.09132973284338769, -0.5621245121755338, 0.43097996477434974, -0.7134785908690197, 0.10010314205498108], [-0.6969138148950915, 0.5836862457058025, 0.48419377496777694, 0.324734736395329, 0.3964517574682285, -0.624228058110792, 0.9820114624069635, -0.58115469247542, -0.1673139416033116, 0.7251293356853735], [-0.16122225451094907, 0.5029220449269537, 0.9822700879971862, -0.5757343911141048, -0.2737661779906123, 0.4706568644486635, 0.6230642782869188, -0.24535814187415333, 0.26542985115327383, -0.508275380494816], [-0.08600441427581484, -0.5343765116999407, -0.9133350807056185, 0.5637562544542557, 0.5072849090035463, -0.3010832804534059, -0.5112036829341579, -0.590657787901131, 0.05759106547232353, 0.40651836169082234]], "bias_input_to_hidden": [[0.6018143457467383], [-0.667527675443229], [0.607844070792544], [-0.13765175413068312], [-0.002299701309017632], [0.6695001219760918], [-0.6639876808091554], [-0.12246170608150014], [-0.6028470757689265], [0.21104408357023277]], "bias_hidden_to_output": [[0.4086633477170841], [-0.4890000859890339], [-0.3466523899331765], [0.8809772430684688], [-0.8416088997448776], [-0.044653786422139456], [-0.5896976866933927], [0.5805201837202664], [0.9886382773125048], [-0.1442711674707424], [0.8275379830716988], [0.524475917617994], [0.9539867639744604]]}