{"input_nodes": 11, "hidden_nodes": 11, "output_nodes": 11, "learning_rate": 0.1, "weights_input_to_hidden": [[-0.48394282444140346, -0.29164961661111777, -0.1247883706120565, 0.37121863905580454, -0.7012153078659098, -0.93695554315898, -0.45095129395073563, 0.7998146151245444, -0.9610235556821052, 0.6974138148507738, -0.7131315508478238], [0.03176145503980066, -0.7958604411112165, -0.13334471642773682, -0.3072116592403582, 0.027869689062704595, 0.9076553038570003, -0.210152532937113, -0.21761157509605722, 0.9516612427030731, -0.3774143648527246, -0.4201578219383655], [-0.698589997545827, -0.7130062482444768, -0.1221947738952498, -0.5614840885022394, -0.17557984856049935, -0.1804014955850275, -0.3342791738513067, 0.35416619649953573, 0.31344630426539677, 0.3969434361417048, -0.9831233923820497], [0.6654728136998789, -0.9681221513951834, 0.9058192715813946, 0.471067799632068, -0.4913978183211496, -0.9429977926197446, 0.49954869124547563, 0.14905812966377296, 0.3130719367105623, 0.5952325299040961, -0.1761630648924042], [-0.08475873264683553, 0.5156811143866196, 0.4386183877303971, 0.19357818616829303, 0.7528184497005137, -0.5079397183638812, 0.860862770165761, 0.8015907334314696, 0.14614972483203714, -0.8553512398404586, -0.8843998697359581], [-0.34236338570172675, -0.3496939532015695, -0.5519916236826619, 0.17772933883805053, 0.6777380215596391, 0.9269378881012569, -0.42227542478525404, 0.37985843950190823, -0.6944143360248234, -0.8758316683450447, -0.14727409121833923], [-0.7005276663685407, 0.986232009709112, -0.4882840670171438, -0.4022445534971002, -0.07932023946728073, 0.3078898326539319, -0.9751314859657587, -0.3696651511522224, 0.681845507776832, -0.6386955868650059, -0.08841088543672937], [0.851176535315679, -0.047040668694454446, 0.2825472445244741, 0.6479954883808412, 0.5968014634958063, 0.3274950652160946, -0.5489205402639514, 0.22290410257049098, -0.644879617904589, -0.8649224439104313, -0.8449193507834303], [-0.8408765433948544, 0.5907449794587254, 0.12160383873809466, 0.3436534573335823, 0.28821529975500515, 0.930227010790482, -0.5781085533282966, -0.7412110252881938, 0.8418820578257074, -0.18731818271150735, 0.3814903771202538], [0.03931229009973847, -0.053970565238652624, -0.7817458992809456, -0.40916168088474736, 0.025730875112832008, 0.19272713005195152, -0.9589149983447518, -0.45642390003589917, 0.1707133086490744, -0.7569350227758407, -0.3071545956888295], [-0.5735861220101393, -0.9130493527157859, -0.06560282254028982, -0.5950259750627325, 0.1191035894065744, 0.9489731940794304, -0.9623398172101965, 0.3012766022976312, -0.26669956309183984, -0.7271565217879743, -0.5372550682130426]], "weights_hidden_to_output": [[-0.5514484954071421, -0.0627479027025747, 0.882480395783576, -0.49763021050759443, -0.8158271101784088, 0.4086434815974365, 0.4000859144044621, -0.9038508399511811, -0.4045292052640983, -0.9717287799580442, -0.12813434901603182], [0.17075644840417428, -0.9255638891984062, 0.03625141382530672, -0.8958042743876861, 0.09383784580044821, -0.30355178425000484, 0.8808802060151548, 0.10943757648893551, -0.028821118467114996, 0.3353107210695182, -0.12053459090052088], [-0.0341042558183207, -0.7968194701173168, -0.8085995455980827, 0.293995101108308, 0.7273306793033611, -0.47814648391453124, 0.5115403501374307, 0.025451801003856713, -0.18380562665375255, 0.8550718182202482, 0.8633730201174544], [0.2547961211155709, 0.2154848892215522, 0.6491428266320833, -0.21224765602245657, -0.10577562223638307, 0.3545702053556032, -0.8141453557286125, 0.009896117108264893, 0.07925963315922512, -0.2297706607850453, 0.22519503457800155], [0.4537403534757447, 0.3359071201433924, 0.8523931723848671, 0.9915968987355105, -0.7131548424932966, -0.9774448255631935, -0.457191407690239, 0.6335843183574635, 0.6587547032048422, -0.5609361518748982, 0.19293946442140905], [-0.020299257444641203, -0.4525644076279896, 0.7432888157469467, -0.7708625800991945, -0.646154851850158, 0.9849599910927832, 0.14188955909254145, 0.12544231892521732, -0.19798155978255355, -0.5368189777550063, -0.6720116796833885], [0.17622422717313482, 0.13161766658526283, -0.18697847360181988, -0.3716028582922928, 0.8614058939039518, -0.18906489371363536, 0.5265631412928897, 0.45200308711568193, -0.8645597938342974, -0.14703565483414785, -0.643955833467514], [0.26681775020682835, -0.29380035089560885, 0.3765463760414722, -0.20430166145886808, -0.8849511291557017, 0.27317028530455306, 0.7351951592909096, 0.9426538750426305, 0.31466582882682315, -0.9149105864040423, -0.589913409376082], [-0.37943032707933577, 0.9952144079426877, -0.8557995270415575, -0.40347113149978425, 0.4191813407461885, 0.6762395508572081, 0.6102298312266122, 0.19551904888305668, -0.7200013108945794, 0.2188591836256158, 0.4187161093844625], [0.7393795294519343, 0.4885701205032898, 0.46688911451206366, 0.8102534409104032, 0.2650603805604638, -0.7094081999915799, 0.3485732167524749, 0.7960189051946825, 0.039697382861691145, 0.31493607823135306, 0.9474663390573806], [-0.4965388056511364, -0.7956504988808385, 0.036565583489352266, -0.18139931678071095, -0.7685246610271773, -0.9810892803296897, 0.5123868386963503, 0.9311639054781764, -0.5969925744414596, -0.26031402205159, 0.7396357516561922]], "bias_input_to_hidden": [[0.9341162263298218], [0.5210968809249288], [0.4005373465972692], [0.909134645443546], [0.6557218530262728], [0.9512419563577366], [0.17182914252121995], [0.993376583978101], [-0.4915023958783683], [-0.06443116384518098], [0.9741256562220206]], "bias_hidden_to_output": [[0.7922645538267131], [-0.04840272717751456], [-0.10928530208675993], [-0.46167732107319215], [-0.5044848892724246], [-0.9780306356958328], [0.8501715576886472], [-0.5958355478477362], [-0.7221631275620696], [-0.8742275482375066], [-0.719855236396966]]}